tree
version=v3
num_class=1
num_tree_per_iteration=1
label_index=0
max_feature_idx=52
objective=binary sigmoid:1
feature_names=eeg_ab eeg_abspow eeg_alpha eeg_alpha2 eeg_ar eeg_as eeg_at eeg_beta eeg_beta2 eeg_beta3 eeg_da eeg_db eeg_delta eeg_delta4 eeg_dn eeg_dr eeg_ds eeg_dt eeg_fdelta eeg_g3a eeg_g3b eeg_g3d eeg_g3n eeg_g3r eeg_g3t eeg_gama eeg_gama0 eeg_gama2 eeg_gama3 eeg_gama4 eeg_gn eeg_gr eeg_iqr eeg_kurt eeg_n_wave eeg_n_wave2 eeg_nzc eeg_petrosian eeg_rem_wave eeg_rem_wave2 eeg_rem_wave3 eeg_rn eeg_sdelta eeg_sigma eeg_sigma2 eeg_sigma3 eeg_skew eeg_std eeg_theta eeg_theta2 age male data_type
feature_infos=[0.00075287996274991248:881.71128389508851] [0:81655.97201887249] [0:2692.5840366032594] [0:3553.3888902944818] [0.00096660471790776972:472.49357794376783] [0.012752203705293603:369.1018949177581] [0.0010770223181159498:564.38426687872675] [0:720.31238043460246] [0:932.32822965747448] [0:780.59059412416741] [0.00232434643540719:inf] [0.0019694947570944935:inf] [0:18763.10513127884] [0:18902.78547404685] [0.0046193979902220076:inf] [0.0025233121258287938:inf] [0.005977490771376495:inf] [0.0059600984474573061:inf] [0:16673.103556130085] [0.00010265986266346327:inf] [0.001749688471736999:inf] [0:11913.871750841405] [7.2974368815849304e-05:inf] [0.00076919557775066661:inf] [4.7882815666815361e-05:inf] [0:2335.300686688443] [0:511.14676633415604] [0:5076.9241800947602] [0:1155.5244883243674] [0:204.55865540748016] [8.4913973165560403e-05:inf] [0.0017504772799110393:inf] [0:517.42475858652028] [-1.6799473066105839:inf] [0:3159.1685693917798] [0:3690.6280101578886] [0:499] [1:1.0570356849323135] [0:726.79613465554235] [0:1683.498141981903] [0:839.80773227311249] [0.00093120520624540774:550.90552717747744] [0:32526.330298875597] [0:1928.2003681402334] [0:1228.3404160383379] [0:1462.6709724310904] [-21.762519524476684:22.2935417555851] [0:261.11329390697654] [0:5419.9706331346597] [0:9329.5953207383918] none none none
tree_sizes=894 886 890 893 889 891 893 891 898 893 896 895 897 900 904 902 902 906 899 906 900 897 911 912 906 904 910 908 908 908 904 902 900 901 907 897 906 904 900 909 898 908 909 899 906 904 896 898 912 897 904 901 901 907 907 900 900 905 907 906

Tree=0
num_leaves=7
num_cat=0
split_feature=18 32 36 42 25 36
split_gain=645729 66958 22544.1 22273.6 7628.46 5964.54
threshold=0.2388613476210972 43.584333670934683 59.500000000000007 0.13238564170891298 0.013242224945589543 93.500000000000014
decision_type=2 2 2 2 2 2
left_child=3 2 -2 -1 -5 -3
right_child=1 5 -4 4 -6 -7
leaf_value=-0.50887345206660584 -0.12415878043018508 -0.31936722898214875 -0.21008345884622465 -0.23740856783432263 -0.41626218179331786 -0.49500741864877185
leaf_weight=130811.97895503044 55905.502060711384 2688.7577194869518 67285.37996211648 2930.0160773992538 12814.334630459547 6882.5311450660229
leaf_count=539496 230566 11089 277499 12084 52849 28385
internal_value=-0.350635 -0.190885 -0.17109 -0.495349 -0.382978 -0.445667
internal_weight=0 132762 123191 146556 15744.4 9571.29
internal_count=1151968 547539 508065 604429 64933 39474
is_linear=0
shrinkage=1


Tree=1
num_leaves=7
num_cat=0
split_feature=13 32 30 32 13 11
split_gain=495573 53113.1 34447.2 19028.1 8241.15 3730.77
threshold=0.23700473065517666 43.584333670934683 0.094959696694230558 2.4853797605511416 0.11052146747294769 2.8414416948242254
decision_type=2 2 8 2 2 10
left_child=2 3 5 -2 -4 -1
right_child=1 -3 4 -5 -6 -7
leaf_value=0.015047463046783005 -0.041415014081504914 -0.089191140172881808 -0.15009048039527495 0.16295926038749495 -0.081687644591515021 0.1759745815617263
leaf_weight=2514.3072499781847 4735.3552107959986 9575.368587911129 116623.74533624947 119988.42389653623 20746.518561452627 3373.3990083634853
leaf_count=10576 19231 40281 496953 483865 87215 13847
internal_value=0 0.137775 -0.129608 0.1552 -0.13976 0.107252
internal_weight=0 134299 143258 124724 137370 5887.71
internal_count=1151968 543377 608591 503096 584168 24423
is_linear=0
shrinkage=0.1


Tree=2
num_leaves=7
num_cat=0
split_feature=42 23 30 35 42 25
split_gain=444153 37613.8 27852.9 19800.8 7435.26 4511.16
threshold=0.2337475638665307 5.3574630611989127 0.082126497937196966 13.799332248588527 0.099184501825498775 0.06636220593383059
decision_type=2 10 8 2 2 2
left_child=2 3 -1 -2 -4 -3
right_child=1 5 4 -5 -6 -7
leaf_value=0.097592577613515558 0.1503598016156138 0.089068892245374023 -0.14398611290001215 -0.036034013638657512 -0.077799629229742484 -0.14802764860415249
leaf_weight=5395.1545782834291 121434.89069609344 948.70531943440437 114164.37802910805 5979.9201723784208 19937.00441364944 5206.7765891253948
leaf_count=22049 487927 3817 506813 24690 84775 21897
internal_value=0 0.129948 -0.125183 0.141612 -0.134146 -0.111485
internal_weight=0 133570 139497 127415 134101 6155.48
internal_count=1151968 538331 613637 512617 591588 25714
is_linear=0
shrinkage=0.1


Tree=3
num_leaves=7
num_cat=0
split_feature=12 32 23 12 29 21
split_gain=383700 36838.3 14889.5 14578.2 7265.99 3188.65
threshold=0.22416286266144592 46.815727541138607 7.6304811730858129 0.1021890013062272 0.0045359049351301316 0.0014709853254371269
decision_type=2 2 10 2 2 10
left_child=3 2 -2 -1 -5 -3
right_child=1 5 -4 4 -6 -7
leaf_value=-0.13608173873461132 0.13697164086916208 0.065758612906468339 -0.11439982099137302 0.14710356326300811 -0.063992471625863231 -0.10950656510970039
leaf_weight=110413.82695306838 123436.05891720951 1213.4232627302408 2402.2524937540293 1773.1730610430241 20272.094852164388 7182.0153820216656
leaf_count=514399 496836 5059 9827 7299 87223 31325
internal_value=0 0.118642 0.132173 -0.121258 -0.0470133 -0.0841749
internal_weight=0 134234 125838 132459 22045.3 8395.44
internal_count=1151968 543047 506663 608921 94522 36384
is_linear=0
shrinkage=0.1


Tree=4
num_leaves=7
num_cat=0
split_feature=12 47 12 37 25 35
split_gain=322287 40155.1 17088.7 13163.9 9732.6 1870.12
threshold=0.25200523875667169 42.398107123688177 0.1021890013062272 1.028453369365778 0.014582905550636132 0.13746269608696796
decision_type=2 2 2 2 2 2
left_child=2 3 5 -2 -4 -1
right_child=1 -3 4 -5 -6 -7
leaf_value=-0.1327390339174877 0.14754962242747516 -0.098861094828635365 0.081739689821704639 0.075236212241625633 -0.070284282517559207 -0.06964486726282576
leaf_weight=99586.03334517777 84758.134293809533 8495.8301017582417 5349.7806867957115 35809.333032265306 19786.65684132278 4930.3303441256285
leaf_count=490891 346126 37303 22222 145743 86175 23508
internal_value=0 0.111265 -0.111958 0.126072 -0.0379291 -0.129763
internal_weight=0 129063 129653 120567 25136.4 104516
internal_count=1151968 529172 622796 491869 108397 514399
is_linear=0
shrinkage=0.1


Tree=5
num_leaves=7
num_cat=0
split_feature=12 36 29 23 12 25
split_gain=272181 26019.4 24246.3 13297.6 11740 6647.71
threshold=0.21600610095679321 152.50000000000003 0.03206054829188499 9.4701304500780399 0.089599521206012819 0.011905329387542367
decision_type=2 2 2 10 2 2
left_child=4 3 -3 -2 -1 -6
right_child=1 2 -4 -5 5 -7
leaf_value=-0.12602818643976707 0.12424142792998359 0.13594494365684215 -0.07753875196039621 -0.12820584647863068 0.085391041843833046 -0.068544090362064158
leaf_weight=94861.928881570697 105989.69147597253 8460.5208046287298 14332.468702316284 2128.4709619134665 3243.9123345762491 20753.766446396708
leaf_count=496520 442101 34731 61442 9190 13546 94438
internal_value=0 0.0988019 0.00170418 0.119272 -0.110221 -0.0477357
internal_weight=0 130911 22793 108118 118860 23997.7
internal_count=1151968 547464 96173 451291 604504 107984
is_linear=0
shrinkage=0.1


Tree=6
num_leaves=7
num_cat=0
split_feature=18 27 18 30 18 28
split_gain=221405 28485.2 22136.5 11468.8 3536.63 2490.78
threshold=0.19838892586942702 2.4694843558675754 0.50808650553187251 0.10927915011427521 0.089703195158392923 0.0070612302421138992
decision_type=2 2 2 8 2 2
left_child=3 2 -2 5 -5 -1
right_child=1 -3 -4 4 -6 -7
leaf_value=0.1549159109388088 0.016468016747777547 -0.11360192201078417 0.11812749485862502 -0.12324094261555725 -0.075633491885831433 -0.0039434852522068371
leaf_weight=1516.51600715518 27330.794408768415 6824.7829219549894 99037.339373528957 83731.638771981001 19178.143675252795 2826.5865750163794
leaf_count=6510 115154 31142 423926 468601 93812 12823
internal_value=0 0.0853935 0.0961407 -0.107651 -0.114369 0.0515267
internal_weight=0 133193 126368 107253 102910 4343.1
internal_count=1151968 570222 539080 581746 562413 19333
is_linear=0
shrinkage=0.1


Tree=7
num_leaves=7
num_cat=0
split_feature=42 47 30 36 42 25
split_gain=195800 27220.4 19295.1 11058.6 5656.8 3642.97
threshold=0.26596087127070489 42.398107123688177 0.092326396861719742 60.500000000000007 0.089612244965823526 0.01678017085002188
decision_type=2 2 8 2 2 2
left_child=2 3 5 -2 -4 -1
right_child=1 -3 4 -5 -6 -7
leaf_value=0.11773980305479832 0.1356313650478842 -0.089935727082113143 -0.11832100773263576 0.072319228799445495 -0.061312204287066463 -0.036691002740656113
leaf_weight=4597.8562784194946 50823.377729520202 7980.4773365259171 83012.50075289607 60345.668953970075 22023.19674398005 2287.4821075350046
leaf_count=19484 228653 37110 492522 258706 105655 9838
internal_value=0 0.0884575 -0.0957371 0.101264 -0.106368 0.066434
internal_weight=0 119150 111921 111169 105036 6885.34
internal_count=1151968 524469 627499 487359 598177 29322
is_linear=0
shrinkage=0.1


Tree=8
num_leaves=7
num_cat=0
split_feature=42 47 42 30 36 42
split_gain=167292 24123.9 13348.5 11375.9 4289.05 3729.26
threshold=0.18897044519378123 28.095900706418409 0.55585018290639221 0.07066439611863623 158.50000000000003 0.074187395624774846
decision_type=2 2 2 8 2 2
left_child=3 2 -2 -1 -3 -5
right_child=1 4 -4 5 -6 -7
leaf_value=0.083516339404159104 0.026470607199964483 -0.0045517645746211864 0.10911804257834475 -0.1156449263274721 -0.12617711524669603 -0.067311437962454576
leaf_weight=3306.7470211386681 25201.968853026628 6303.6186253577471 87019.057780429721 73800.393820747733 5368.944427549839 20369.487161070108
leaf_count=14064 109155 27913 397931 469793 26395 106717
internal_value=0 0.0763262 0.0905575 -0.0987885 -0.0604949 -0.10519
internal_weight=0 123894 112221 97476.6 11672.6 94169.9
internal_count=1151968 561394 507086 590574 54308 576510
is_linear=0
shrinkage=0.1


Tree=9
num_leaves=7
num_cat=0
split_feature=12 27 12 36 29 26
split_gain=147402 21519.5 14632.7 11276.3 7418.87 1330.2
threshold=0.29325332791710862 2.4694843558675754 0.081568945638319609 150.50000000000003 0.0049029316886151962 9.5425337718121686
decision_type=2 2 2 2 2 2
left_child=2 3 -1 -2 -4 -3
right_child=1 5 4 -5 -6 -7
leaf_value=-0.112001054166718 0.10602760272734105 -0.12876169265614229 0.10909825276259554 0.015870830895134892 -0.047278640146013337 -0.023417555876078255
leaf_weight=70487.122835531831 85878.728580027819 4535.0276044607162 3382.5799159705639 16545.813380032778 29426.615791261196 1629.3105483651161
leaf_count=483044 407466 22886 14900 72983 142831 7858
internal_value=0 0.0805425 -0.086323 0.0914635 -0.0311564 -0.100918
internal_weight=0 108589 103296 102425 32809.2 6164.34
internal_count=1151968 511193 640775 480449 157731 30744
is_linear=0
shrinkage=0.1


Tree=10
num_leaves=7
num_cat=0
split_feature=18 36 32 27 18 41
split_gain=119761 21674 13239.2 5043.34 4604.78 2645.79
threshold=0.16556444415887597 60.500000000000007 43.584333670934683 0.10438802674960117 0.074943832028056503 0.296127574132029
decision_type=2 2 2 2 2 10
left_child=4 3 -3 -2 -1 -6
right_child=1 2 -4 -5 5 -7
leaf_value=-0.1102259005977599 0.1204029865469045 0.040312234462003986 -0.10741486478006552 -0.025543236554196703 0.042564096092586587 -0.068336733029607286
leaf_weight=59820.918274104595 46163.016935780644 67677.717681214213 6663.9125364869833 2495.7397296875715 2456.490255177021 17310.982218235731
leaf_count=443531 236838 309345 35284 11092 12474 103404
internal_value=0 0.0610311 0.0270701 0.112917 -0.0963989 -0.0545552
internal_weight=0 123000 74341.6 48658.8 79588.4 19767.5
internal_count=1151968 592559 344629 247930 559409 115878
is_linear=0
shrinkage=0.1


Tree=11
num_leaves=7
num_cat=0
split_feature=42 27 30 37 7 25
split_gain=107729 16698.3 15945.5 9382.08 5228.87 3960.96
threshold=0.31477879469163345 1.7141118466761145 0.1124379153414317 1.0286825667611343 0.35018573111333501 0.01860396753791831
decision_type=2 2 8 2 2 2
left_child=2 3 5 -2 -4 -1
right_child=1 -3 4 -5 -6 -7
leaf_value=0.089409747541370904 0.10283941334884128 -0.083066755603554851 -0.095237871912114525 0.034109884791653 0.094326859838740215 -0.047519283837170287
leaf_weight=6419.0400387793779 65275.469177916646 6562.9902147948742 82591.160481363535 28547.825857788324 1481.1947962492704 3148.8861635029316
leaf_count=29689 338527 34356 594122 133475 7431 14368
internal_value=0 0.0711401 -0.0779771 0.0819269 -0.0918981 0.0443452
internal_weight=0 100386 93640.3 93823.3 84072.4 9567.93
internal_count=1151968 506358 645610 472002 601553 44057
is_linear=0
shrinkage=0.1


Tree=12
num_leaves=7
num_cat=0
split_feature=12 30 36 29 23 12
split_gain=95983 13972.5 12599 14444.5 7515.94 5736.26
threshold=0.32727996891175865 0.12881402118210863 148.50000000000003 0.03206054829188499 6.3302455159317423 0.081568945638319609
decision_type=2 8 2 2 10 2
left_child=1 -1 4 -4 -2 -3
right_child=2 5 3 -5 -6 -7
leaf_value=0.032936395738077266 0.092487183448457799 -0.10647308404405785 0.10995284984493113 -0.074445333628464477 -0.10189585729829145 -0.04857232743892017
leaf_weight=10727.016230337322 74629.178788080812 55399.180717520416 6791.8289601653814 11342.106261849403 2043.6165563166142 24756.673130974174
leaf_count=50882 401031 473416 31829 55216 9895 129699
internal_value=0 -0.0742461 0.0695776 -0.0053814 0.0873061 -0.08859
internal_weight=0 90882.9 94806.7 18133.9 76672.8 80155.9
internal_count=1151968 653997 497971 87045 410926 603115
is_linear=0
shrinkage=0.1


Tree=13
num_leaves=7
num_cat=0
split_feature=12 36 47 35 35 33
split_gain=82783.4 16559.4 11457.7 3668.07 3611.55 2676.41
threshold=0.13639047097352974 58.500000000000007 49.095566945728955 17.244941018204461 0.12097880316898371 -0.19247079652453666
decision_type=2 2 2 2 2 10
left_child=4 3 -3 -2 -1 -6
right_child=1 2 -4 -5 5 -7
leaf_value=-0.099973781977457959 0.10919928324230871 0.032917699191630977 -0.12094854639883859 -0.016605110657984055 -0.071513082264016731 0.058611454646586181
leaf_weight=57206.036981709301 38194.094053536654 67698.176738753915 5212.2207831293344 2467.3627382367849 4201.2809646427631 2534.0181202962995
leaf_count=506940 229743 329293 31425 11080 27867 15620
internal_value=0 0.0504338 0.0219181 0.101565 -0.091819 -0.0225564
internal_weight=0 113572 72910.4 40661.5 63941.3 6735.3
internal_count=1151968 601541 360718 240823 550427 43487
is_linear=0
shrinkage=0.1


Tree=14
num_leaves=7
num_cat=0
split_feature=12 12 47 37 28 36
split_gain=72637.2 12833.7 11755.6 7934.94 5943.79 1803.78
threshold=0.36626832926736741 0.074697285433095464 42.398107123688177 1.028453369365778 0.0061697417860223508 81.500000000000014
decision_type=2 2 2 2 2 2
left_child=1 -1 3 -2 -3 -4
right_child=2 4 5 -5 -6 -7
leaf_value=-0.10080098903167162 0.096885954762453652 0.086828342111224865 -0.00076168422766658978 0.029284193671375663 -0.037017122732923548 -0.1105312949300771
leaf_weight=47517.217403568327 53218.700401902199 4392.5963336899877 2466.720561221242 25771.200653687119 32905.45661573112 3807.9512874037027
leaf_count=469794 320229 22013 10734 128705 175752 24741
internal_value=0 -0.0663377 0.064365 0.0748302 -0.0224318 -0.0673783
internal_weight=0 84815.3 85264.6 78989.9 37298.1 6274.67
internal_count=1151968 667559 484409 448934 197765 35475
is_linear=0
shrinkage=0.1


Tree=15
num_leaves=7
num_cat=0
split_feature=35 36 47 21 27 30
split_gain=61427.6 13328.8 9239.39 6331.02 4287.92 2323.82
threshold=0.10954116785996197 57.500000000000007 42.398107123688177 0.094249329569273885 0.068075433628279391 0.18242594638415546
decision_type=2 2 2 8 2 10
left_child=3 4 -3 5 -2 -1
right_child=1 2 -4 -5 -6 -7
leaf_value=0.063527226956853755 0.10723207536956032 0.032005668091352149 -0.1072784401539944 -0.09313342650553369 -0.026196086268088205 -0.038616800311733299
leaf_weight=3135.2085576578975 32543.416228085756 59888.224875055254 5174.0133318081498 51705.165237650275 2601.0323375612497 7691.213912717998
leaf_count=16422 220051 315941 35772 507841 12241 43700
internal_value=0 0.047734 0.0209292 -0.0785734 0.0973571 -0.00903705
internal_weight=0 100207 65062.2 62531.6 35144.4 10826.4
internal_count=1151968 584005 351713 567963 232292 60122
is_linear=0
shrinkage=0.1


Tree=16
num_leaves=7
num_cat=0
split_feature=12 12 34 25 31 20
split_gain=55016.3 12199.4 10076 8699.58 7272.58 923.359
threshold=0.40935687810828469 0.068827703180165539 6.4838520832422253 0.01612250141016228 1.1979493509725503 2.3424531352149658
decision_type=2 2 2 2 10 10
left_child=1 -1 4 -3 -2 -4
right_child=2 3 5 -5 -6 -7
leaf_value=-0.098102775111555796 0.084869514170143115 0.055901451664157081 -0.029217055711898393 -0.048458629783391771 -0.010409301658183438 -0.11049893756139256
leaf_weight=39701.904715739191 59475.190996825695 10985.613755613565 5868.0717500522733 29272.199500583112 9258.2235886305571 1834.5307320281863
leaf_count=456711 375746 57972 31448 166375 50506 13210
internal_value=0 -0.0587702 0.0598814 -0.0199807 0.0720357 -0.048576
internal_weight=0 79959.7 76436 40257.8 68733.4 7702.6
internal_count=1151968 681058 470910 224347 426252 44658
is_linear=0
shrinkage=0.1


Tree=17
num_leaves=7
num_cat=0
split_feature=42 36 29 47 34 29
split_gain=47334.1 11525.6 14465.2 8566.65 4296.24 3018.42
threshold=0.14859000208611464 160.50000000000003 0.02571948123752783 2.9652022045002306 0.092930632719115003 0.0052543328742420082
decision_type=2 2 2 2 2 2
left_child=4 3 -3 -2 -1 -6
right_child=1 2 -4 -5 5 -7
leaf_value=-0.092513082685894671 0.0062983405045972957 0.094571185618262374 -0.088507319795372422 0.079076158959122317 0.13043321696810675 -0.040469544855973386
leaf_weight=40922.38054638356 22904.601018451154 6435.3804646506906 13102.452464856207 55039.026665225625 1146.6942607983947 10462.505522444844
leaf_count=484964 124575 33483 70291 359889 6029 72737
internal_value=0 0.0404741 -0.0282048 0.0576896 -0.0772812 -0.0235887
internal_weight=0 97481.5 19537.8 77943.6 52531.6 11609.2
internal_count=1151968 588238 103774 484464 563730 78766
is_linear=0
shrinkage=0.1


Tree=18
num_leaves=7
num_cat=0
split_feature=12 36 23 47 12 30
split_gain=41453.9 11708.9 6934.55 2983.64 2792.87 1586.26
threshold=0.12218735944674074 55.500000000000007 12.199427625864422 19.766402542594253 0.053514306444330459 0.15831833350161631
decision_type=2 2 10 2 2 10
left_child=4 3 -3 -2 -1 -6
right_child=1 2 -4 -5 5 -7
leaf_value=-0.098358889091105794 0.099261619895606126 0.0193334908741679 -0.13522203937732966 0.0016409023642753693 0.027161960080183508 -0.060229729850286441
leaf_weight=30368.3392791152 26123.849509984255 67338.909837916493 3033.8039133250713 3557.1663985699415 2545.2139278948307 11290.425155460835
leaf_count=411536 210668 366582 19288 18420 14738 110736
internal_value=0 0.0348872 0.0126705 0.0875621 -0.0813927 -0.0441531
internal_weight=0 100054 70372.7 29681 44204 13835.6
internal_count=1151968 614958 385870 229088 537010 125474
is_linear=0
shrinkage=0.1


Tree=19
num_leaves=7
num_cat=0
split_feature=35 37 25 20 18 36
split_gain=35848.4 12528.4 15560.2 6223.58 4539.86 2489.51
threshold=0.10443710047764533 1.028453369365778 0.021638249241017444 10.298848313038599 0.074943832028056503 170.50000000000003
decision_type=2 2 2 10 2 2
left_child=4 3 -3 -2 -1 -6
right_child=1 2 -4 -5 5 -7
leaf_value=-0.09555327180975004 0.072170435210718226 0.094958927899947587 -0.05328193544484186 -0.11308338056092399 -0.010961612514573733 -0.087573396040761975
leaf_weight=28477.016734562814 53843.274602226913 9935.0426050424576 24646.506769627333 1876.6572711095214 14298.820822112262 6030.3417687341571
leaf_count=421393 380469 58127 141127 12957 92761 45134
internal_value=0 0.0365872 -0.0106933 0.0659311 -0.0697844 -0.0336874
internal_weight=0 90301.5 34581.5 55719.9 48806.2 20329.2
internal_count=1151968 592680 199254 393426 559288 137895
is_linear=0
shrinkage=0.1


Tree=20
num_leaves=7
num_cat=0
split_feature=42 37 47 20 34 33
split_gain=31629 8178.02 11017.3 7605.48 2720.98 2817.7
threshold=0.11815336139038103 1.0293689237342167 8.357087098142463 12.810085357147498 0.080313230858690882 -0.11935705898803882
decision_type=2 2 2 10 2 10
left_child=4 3 -3 -2 -1 -6
right_child=1 2 -4 -5 5 -7
leaf_value=-0.090551767795314306 0.057978664939670091 0.035742191624351924 -0.087479384925180079 -0.12516727671178715 -0.068685381834973663 0.042367665492716207
leaf_weight=29795.627678833902 61459.438895583153 18880.434626579285 11785.46341701597 2354.2766249999404 6656.7192483618855 3478.6706284582615
leaf_count=453596 429040 103535 67512 14976 56977 26332
internal_value=0 0.0308268 -0.0116141 0.0512219 -0.075327 -0.0305697
internal_weight=0 94479.6 30665.9 63813.7 39931 10135.4
internal_count=1151968 615063 171047 444016 536905 83309
is_linear=0
shrinkage=0.1


Tree=21
num_leaves=7
num_cat=0
split_feature=35 25 1 21 31 36
split_gain=27684.7 9070.5 11304.6 4562.9 2811.51 1236.72
threshold=0.13056500450114517 0.01860396753791831 9.227482551442419 0.29677231041905072 0.17870710210860849 299.50000000000006
decision_type=2 2 2 8 10 2
left_child=3 5 -3 4 -1 -2
right_child=1 2 -4 -5 -6 -7
leaf_value=0.08811734796632742 0.095602156613566247 -0.063049497018449793 0.039939787123407455 -0.086806070893564041 -0.036926868638190093 -0.21139208854479172
leaf_weight=1969.4650017730892 20082.93746240437 13860.636497609317 46124.029201950878 27228.401212353259 20664.327108617872 132.08643842488527
leaf_count=12079 154115 80591 317014 413412 174117 640
internal_value=0 0.0356651 0.0161421 -0.0592255 -0.0260462 0.0935962
internal_weight=0 80199.7 59984.7 49862.2 22633.8 20215
internal_count=1151968 552360 397605 599608 186196 154755
is_linear=0
shrinkage=0.1


Tree=22
num_leaves=7
num_cat=0
split_feature=42 27 7 42 33 42
split_gain=24541.9 9237.67 9641.2 7400.82 8011.69 2291.09
threshold=0.4711436628234168 0.014911049219497334 0.14405947492120372 0.056502587498282887 -0.28224071761245367 0.92417024178489826
decision_type=2 2 2 2 10 2
left_child=3 5 -3 -1 -5 -2
right_child=1 2 -4 4 -6 -7
leaf_value=-0.086715003685941802 0.029930403879314851 -0.14264960959476464 0.024153942731918905 -0.070221331989865354 0.022348828292488788 0.087375649590729437
leaf_weight=25119.949422072619 9066.9387179240584 4201.2505422309041 19776.693751446903 16220.722481381148 22070.383003093302 29635.467054389417
leaf_count=429265 60091 23259 128852 115531 144920 250050
internal_value=0 0.0437007 -0.00507223 -0.0445359 -0.0168654 0.0739178
internal_weight=0 62680.4 23977.9 63411.1 38291.1 38702.4
internal_count=1151968 462252 152111 689716 260451 310141
is_linear=0
shrinkage=0.1


Tree=23
num_leaves=7
num_cat=0
split_feature=12 27 0 12 33 31
split_gain=21914.5 8995.93 8583.24 7548.16 7958.99 1679.89
threshold=0.47297210270570739 0.012717552542159923 1.2734541086317093 0.05607342124232504 -0.21377542900381827 0.75735772302665139
decision_type=2 2 10 2 10 10
left_child=3 5 -3 -1 -5 -2
right_child=1 2 -4 4 -6 -7
leaf_value=-0.089710546583218906 0.08410977914675126 0.061899315834070379 -0.055910865638978208 -0.061657088926117688 0.025676673028295217 0.010573305997346594
leaf_weight=21467.493704766035 30590.200338385999 11330.154573611915 13616.274900466204 20294.425289355218 21479.293112836778 3457.6624181419611
leaf_count=420526 270938 73918 85914 142677 135408 22587
internal_value=0 0.0432165 -0.00240391 -0.0415178 -0.0167516 0.0766419
internal_weight=0 58994.3 24946.4 63241.2 41773.7 34047.9
internal_count=1151968 453357 159832 698611 278085 293525
is_linear=0
shrinkage=0.1


Tree=24
num_leaves=7
num_cat=0
split_feature=35 37 27 47 12 47
split_gain=18742.5 8199.58 9331.13 6279.19 3659.42 3226.93
threshold=0.093198784468559892 1.028453369365778 0.0025957426462204108 2.8556891596500287 0.070668426539456458 4.7466276050893592
decision_type=2 2 2 2 2 2
left_child=4 3 -3 -2 -1 -6
right_child=1 2 -4 -5 5 -7
leaf_value=-0.089455809506339107 -0.008908794537421473 0.064723820347950267 -0.049340065566460548 0.072247733791262897 0.0011253037737167205 -0.10400794501825428
leaf_weight=20031.173111572862 12864.946009237319 10519.82616411522 22536.069383595139 36816.735388983041 11779.810087058693 3881.4873648993671
leaf_count=428300 86152 69861 138449 320399 77237 31570
internal_value=0 0.0255539 -0.01304 0.0512325 -0.0611433 -0.0249309
internal_weight=0 82737.6 33055.9 49681.7 35692.5 15661.3
internal_count=1151968 614861 208310 406551 537107 108807
is_linear=0
shrinkage=0.1


Tree=25
num_leaves=7
num_cat=0
split_feature=48 47 47 16 20 4
split_gain=16253.8 7112.72 6748.34 2106.13 1768.24 958.818
threshold=0.084948559932166434 28.095900706418409 2.9652022045002306 3.6313353386130003 3.7186902908341533 0.36364418087996253
decision_type=2 2 2 10 8 10
left_child=3 2 -2 -1 -5 -3
right_child=1 5 -4 4 -6 -7
leaf_value=-0.078990815668918635 -0.012553668452597359 0.033789158366687284 0.053052962140348159 -0.0018796469625890723 -0.10879137525062305 -0.069429538697005175
leaf_weight=21796.321540229023 22559.54801871255 1005.6385365612805 51400.767247550189 7810.3816022910178 1929.1031675711274 8563.2935347296298
leaf_count=418293 150991 6890 422400 59439 32114 61841
internal_value=0 0.0225453 0.0330415 -0.0617159 -0.0230557 -0.0585819
internal_weight=0 83529.2 73960.3 31535.8 9739.48 9568.93
internal_count=1151968 642122 573391 509846 91553 68731
is_linear=0
shrinkage=0.1


Tree=26
num_leaves=7
num_cat=0
split_feature=12 25 47 47 22 12
split_gain=14630.9 8601.51 6754.2 3571.52 666.052 495.388
threshold=0.065148296636288808 0.015185265190654166 2.9288293971194697 1.7986602317988323 0.041206800896638703 0.038292118325379772
decision_type=2 2 2 2 8 2
left_child=4 3 -3 -2 -1 -6
right_child=1 2 -4 -5 5 -7
leaf_value=0.083781335210014823 -0.010542700798229963 -0.054506078036101684 0.01681336518166357 0.094711985738978446 -0.092945796859641591 -0.056369927909788391
leaf_weight=242.72680822014809 4031.5683206431568 17443.384055018425 55617.790861688554 16090.360568858683 13543.289998415858 5096.5098758973181
leaf_count=1943 24635 105531 430944 143188 339234 106493
internal_value=0 0.0157303 -0.00021418 0.0736235 -0.080802 -0.0829452
internal_weight=0 93183.1 73061.2 20121.9 18882.5 18639.8
internal_count=1151968 704298 536475 167823 447670 445727
is_linear=0
shrinkage=0.1


Tree=27
num_leaves=7
num_cat=0
split_feature=42 36 47 47 12 28
split_gain=12770.5 7231.96 5388.06 2742.74 1274.07 609.171
threshold=0.072080954468686134 55.500000000000007 8.4978025501877301 18.46576341567301 0.044932703695671421 0.0049698792003638297
decision_type=2 2 2 2 2 2
left_child=4 3 -3 -2 -1 -6
right_child=1 2 -4 -5 5 -7
leaf_value=-0.088544863775365301 0.084362640268101474 0.019223594048990648 -0.041562256738291684 -0.012536397598606386 0.083650869799255845 -0.043358832345946841
leaf_weight=13868.205004949123 17138.481260314584 46813.006557468325 21179.942229650915 3521.256872355938 400.87284445762634 6512.6809136606753
leaf_count=372495 209107 306376 146895 20163 3815 93117
internal_value=0 0.0160326 0.000288678 0.0678471 -0.0710627 -0.0359944
internal_weight=0 88652.7 67992.9 20659.7 20781.8 6913.55
internal_count=1151968 682541 453271 229270 469427 96932
is_linear=0
shrinkage=0.1


Tree=28
num_leaves=7
num_cat=0
split_feature=12 35 30 33 20 29
split_gain=11503 7155.05 5511.05 5471.89 4384.19 1616.69
threshold=0.4901991766071509 6.5607589142726832 0.064479526036740523 -0.34152270770453858 1.1753153777655794 0.0069911613024661399
decision_type=2 2 8 10 10 2
left_child=2 4 5 -4 -2 -1
right_child=1 -3 3 -5 -6 -7
leaf_value=0.11395520603410048 0.064411325211489526 -0.058203715213734998 -0.087419220747196033 -0.018122972504849885 -0.014468464000044491 0.0010009841848785037
leaf_weight=2987.4992524646223 35395.499968074262 7292.7371426746249 17466.553589716554 32781.664417061955 8797.6108600795269 2200.4320122674108
leaf_count=21002 340120 49241 241221 428826 59612 11946
internal_value=0 0.0335649 -0.0320796 -0.0422107 0.0487086 0.0660463
internal_weight=0 51485.8 55436.1 50248.2 44193.1 5187.93
internal_count=1151968 448973 702995 670047 399732 32948
is_linear=0
shrinkage=0.1


Tree=29
num_leaves=7
num_cat=0
split_feature=12 29 37 22 30 12
split_gain=10491.9 6539.07 7272.5 2530.02 578.054 326.739
threshold=0.061933359605586075 0.0054172604797387497 1.0293689237342167 0.097135190421100984 0.1397099674001005 0.032107667394876672
decision_type=2 2 2 10 8 2
left_child=4 3 -3 -2 -1 -6
right_child=1 2 -4 -5 5 -7
leaf_value=0.0080975437440403489 0.10247736994607178 0.024538120368983046 -0.03993904000912054 -0.028921746201943484 -0.092362518553887496 -0.060973970055709731
leaf_weight=760.6882102843374 9837.7375639975071 50652.793457616121 26721.902612235397 1721.8064275160432 9431.474775666371 5114.8434213958681
leaf_count=8772 106264 417559 177480 11782 295054 135057
internal_value=0 0.0127513 0.00227047 0.0829053 -0.0768816 -0.0813255
internal_weight=0 88934.2 77374.7 11559.5 15307 14546.3
internal_count=1151968 713085 595039 118046 438883 430111
is_linear=0
shrinkage=0.1


Tree=30
num_leaves=7
num_cat=0
split_feature=48 28 37 18 15 31
split_gain=9120.68 5257.44 6180.26 1795.16 1503.35 761.52
threshold=0.079892598320397037 0.0068358047649965175 1.028453369365778 0.053494596181506468 162.24655920268205 0.32890908909466166
decision_type=2 2 2 2 10 10
left_child=3 5 -3 -1 -5 -2
right_child=1 2 -4 4 -6 -7
leaf_value=-0.085553764840872668 0.10140721386021448 0.032117971548498381 -0.029082711887721942 -0.027683653855229386 -0.36429355430194277 0.033985729403473483
leaf_weight=10151.525729902089 7358.1699697598815 39786.96370613575 28192.207447078079 14436.073275681585 133.91077752783895 2169.1234649755061
leaf_count=341794 85745 358492 191281 153681 803 20172
internal_value=0 0.0164872 0.00673693 -0.0532705 -0.0307774 0.086057
internal_weight=0 77506.5 67979.2 24721.5 14570 9527.29
internal_count=1151968 655690 549773 496278 154484 105917
is_linear=0
shrinkage=0.1


Tree=31
num_leaves=7
num_cat=0
split_feature=34 37 29 47 47 47
split_gain=7784.12 5933.1 5637.8 4454.03 2555.67 3715.25
threshold=0.10924588596075621 1.0279943540514986 0.0072135773801035577 2.8193601147196552 4.8404908398538433 1.7670677673850206
decision_type=2 2 2 2 2 2
left_child=4 3 -3 -2 5 -1
right_child=1 2 -4 -5 -6 -7
leaf_value=-0.061756150136332233 -0.01829725392494216 0.085987860086037315 -0.032590698113597098 0.063642874846558589 -0.09521197771212854 0.015389272110793406
leaf_weight=13587.560133289546 8572.5302903968841 4748.7054785974324 25760.028516652063 29332.16277398169 6850.9655332118273 11548.390865495428
leaf_count=286957 61653 42851 163712 306833 126212 163750
internal_value=0 0.0186911 -0.0141339 0.0451113 -0.0410695 -0.0263127
internal_weight=0 68413.4 30508.7 37904.7 31986.9 25136
internal_count=1151968 575049 206563 368486 576919 450707
is_linear=0
shrinkage=0.1


Tree=32
num_leaves=7
num_cat=0
split_feature=12 20 36 47 12 36
split_gain=7622.72 5623.7 5133.29 295.883 251.91 239.981
threshold=0.048996293309859149 8.2007253035343233 172.50000000000003 4.7466276050893592 0.029214342292531049 72.500000000000014
decision_type=2 10 2 2 2 2
left_child=4 2 -2 -3 -1 -6
right_child=1 3 -4 -5 5 -7
leaf_value=-0.089532661570305538 0.028388897229799349 -0.037269109740013705 -0.03169331393775339 -0.11454723043559978 0.11908861159893272 -0.061115562216572786
leaf_weight=7325.3218202330172 64970.888928219676 574.85438892059028 18204.588795835152 3587.2495606113225 75.457330789417028 3581.9490310996771
leaf_count=277038 571468 5825 145375 35457 793 116012
internal_value=0 0.00956237 0.0152387 -0.103874 -0.0788313 -0.0573977
internal_weight=0 87337.6 83175.5 4162.1 10982.7 3657.41
internal_count=1151968 758125 716843 41282 393843 116805
is_linear=0
shrinkage=0.1


Tree=33
num_leaves=7
num_cat=0
split_feature=12 35 30 20 8 0
split_gain=6843.99 6408.28 3875.34 3589.51 3033.28 825.161
threshold=0.56525574073814888 5.1466556287633685 0.05193091760551144 0.96465768039632638 0.3185769746305453 0.85166697588221296
decision_type=2 2 8 10 2 10
left_child=2 3 -1 -2 -4 -3
right_child=1 5 4 -5 -6 -7
leaf_value=0.073297828454319466 0.064432997050140578 0.039701645516335898 -0.038227301780001742 -0.0068536053982681758 0.077823399759948356 -0.064829197913933531
leaf_weight=3726.5095425285399 27221.428182590753 846.36488562449813 45949.364938475192 9538.6034327670932 2368.3377293143421 7009.3447131551802
leaf_count=29875 305305 6255 676144 68127 14610 51652
internal_value=0 0.0284154 -0.0249608 0.0459353 -0.032539 -0.0535672
internal_weight=0 44615.7 52044.2 36760 48317.7 7855.71
internal_count=1151968 431339 720629 373432 690754 57907
is_linear=0
shrinkage=0.1


Tree=34
num_leaves=7
num_cat=0
split_feature=12 29 0 8 35 31
split_gain=6282.68 5019.25 3694.6 2042.06 230.011 179.204
threshold=0.046896447630073994 0.0047203574734001677 0.36234923146006753 0.0054717160708894078 0.15947340997197104 0.12812946767656078
decision_type=2 2 10 2 2 8
left_child=4 3 -3 -2 5 -1
right_child=1 2 -4 -5 -6 -7
leaf_value=0.19516052182745558 -0.26607590638703854 0.067745052974920825 -0.0065541026243638436 0.091377822482796717 0.0084514793306806734 -0.080712675743777301
leaf_weight=23.606912575662136 163.16951521858573 7402.7651404235512 69771.094930674881 7783.6002443637699 303.59800775907934 9217.5792250912637
leaf_count=424 955 62203 604686 99263 4294 380143
internal_value=0 0.00836515 0.000572912 0.0840383 -0.0771943 -0.0800079
internal_weight=0 85120.6 77173.9 7946.77 9544.78 9241.19
internal_count=1151968 767107 666889 100218 384861 380567
is_linear=0
shrinkage=0.1


Tree=35
num_leaves=7
num_cat=0
split_feature=23 47 37 37 23 46
split_gain=6037.37 4949.51 7339.92 3868.77 60.914 60.2809
threshold=12.199427625864422 1.7986602317988323 1.0286825667611343 1.0270738275882429 17.304593864383246 0.10120031098111615
decision_type=8 2 2 2 8 8
left_child=1 3 -3 -1 5 -2
right_child=4 2 -4 -5 -6 -7
leaf_value=-0.098452230033552177 -0.042073415225687028 0.043569970725242019 -0.019126385429014153 0.011392365952787947 -0.11205026088764519 -0.11141349537833869
leaf_weight=7434.7392348200083 261.68751787766814 41801.841184683144 33747.58224715665 5637.8118281066418 4398.7224715668708 240.68989145383239
leaf_count=134225 3558 439909 325693 132842 110426 5315
internal_value=0 0.00573331 0.0155638 -0.0510794 -0.108283 -0.0752944
internal_weight=0 88622 75549.4 13072.6 4901.1 502.377
internal_count=1151968 1032669 765602 267067 119299 8873
is_linear=0
shrinkage=0.1


Tree=36
num_leaves=7
num_cat=0
split_feature=23 32 36 7 23 30
split_gain=5330.31 5468.07 7135.5 1927.97 164.26 164.274
threshold=9.4701304500780399 2.3935956180154139 172.50000000000003 0.02435278730074603 17.304593864383246 0.40365907653762578
decision_type=8 2 2 2 8 10
left_child=1 3 -3 -1 5 -2
right_child=4 2 -4 -5 -6 -7
leaf_value=-0.0056248994080122456 0.0067571083667612858 0.035326984204125632 -0.034202505820639252 -0.083741094968046034 -0.11005544215586992 -0.089706615670280418
leaf_weight=5154.2356034256518 247.75923971273005 53400.460981812328 20398.046940991655 8163.8491267263889 4048.6386673096567 614.13439159654081
leaf_count=125165 1379 499921 258739 144167 110426 12171
internal_value=0 0.00546591 0.0161089 -0.0535093 -0.101617 -0.0619772
internal_weight=0 87116.6 73798.5 13318.1 4910.53 861.894
internal_count=1151968 1027992 758660 269332 123976 13550
is_linear=0
shrinkage=0.1


Tree=37
num_leaves=7
num_cat=0
split_feature=42 25 47 37 34 29
split_gain=4699.15 5387.08 5211.37 2286.74 579.784 373.383
threshold=0.045079593172882244 0.01678017085002188 2.9288293971194697 1.0271890761761002 0.077409519349760966 0.0042293019157019799
decision_type=2 2 2 2 2 2
left_child=4 3 -3 -2 -1 -6
right_child=1 2 -4 -5 5 -7
leaf_value=-0.079849406248958782 0.018404733052301735 -0.057532822777087267 0.010007078933904141 0.089957193313158823 0.14935271096821678 -0.031837252568343632
leaf_weight=7358.6281337700784 8497.945731908083 15021.161098200828 47710.585736286826 9415.050540775992 119.96001032367349 2190.9461739212275
leaf_count=349765 116157 107498 448504 90751 925 38368
internal_value=0 0.00764573 -0.0061654 0.0560126 -0.0661272 -0.0224316
internal_weight=0 80644.7 62731.7 17913 9669.53 2310.91
internal_count=1151968 762910 556002 206908 389058 39293
is_linear=0
shrinkage=0.1


Tree=38
num_leaves=7
num_cat=0
split_feature=23 46 47 29 23 46
split_gain=4613.82 3758.29 3242.28 3111.33 66.2571 59.1973
threshold=12.199427625864422 0.01509774736425311 1.8344760890431229 0.0047203574734001677 17.304593864383246 0.10120031098111615
decision_type=8 10 2 2 8 8
left_child=1 3 -3 -1 5 -2
right_child=4 2 -4 -5 -6 -7
leaf_value=0.069543161360569955 -0.03450455657484322 -0.039159024540745463 0.040970750870212853 -0.021940866588898933 -0.10835641547227254 -0.10704116451911201
leaf_weight=4068.0105265378952 245.05083735473454 6002.6770482100546 31805.88929756172 43149.945075998083 3645.4132890533656 208.01317358296365
leaf_count=66630 3558 127419 333684 504936 110426 5315
internal_value=0 0.0047539 0.0282489 -0.0140592 -0.103874 -0.067808
internal_weight=0 85026.5 37808.6 47218 4098.48 453.064
internal_count=1151968 1032669 461103 571566 119299 8873
is_linear=0
shrinkage=0.1


Tree=39
num_leaves=7
num_cat=0
split_feature=36 33 11 15 27 7
split_gain=4119.85 4102.69 4819.25 3655.76 2894.57 1756.4
threshold=52.500000000000007 -0.31336351600251738 78.558159598863924 5.8103704943458139 0.052132673748633895 0.007771733119182102
decision_type=2 10 10 10 2 2
left_child=4 3 -3 -2 5 -1
right_child=1 2 -4 -5 -6 -7
leaf_value=-0.28549853053275842 -0.073868051322110828 0.015350987042835213 -0.11227510422092919 0.0041899436254926392 -0.048528153465636915 0.075000586226613083
leaf_weight=136.77676168084145 14979.562529207207 46051.989732428454 3161.8350466797128 10008.761772652157 2473.9785359688103 11358.732663393021
leaf_count=2422 243051 572734 24749 91826 12807 204379
internal_value=0 -0.00960386 0.00715141 -0.0426029 0.0495941 0.0707113
internal_weight=0 74202.1 49213.8 24988.3 13969.5 11495.5
internal_count=1151968 932360 597483 334877 219608 206801
is_linear=0
shrinkage=0.1


Tree=40
num_leaves=7
num_cat=0
split_feature=23 1 47 26 23 36
split_gain=3983.26 3865.52 6252.19 3790.78 70.6145 61.945
threshold=12.199427625864422 9.681832740653487 8.2294432375559943 0.024464964933376642 17.304593864383246 280.50000000000006
decision_type=8 2 2 2 8 2
left_child=1 3 -3 -1 5 -2
right_child=4 2 -4 -5 -6 -7
leaf_value=0.017556363067451584 -0.073857622363478051 0.070165119718254593 -0.010243374229966372 -0.041368803030858999 -0.10591068066422127 0.068231438523298146
leaf_weight=19292.417760911398 398.33533734455705 18180.707903382368 20657.413245176896 25149.994741890579 3321.4847725341097 33.242649295367301
leaf_count=309223 7965 224150 175266 324030 110426 908
internal_value=0 0.00435071 0.027397 -0.0157894 -0.100966 -0.0629131
internal_weight=0 83280.5 38838.1 44442.4 3753.06 431.578
internal_count=1151968 1032669 399416 633253 119299 8873
is_linear=0
shrinkage=0.1


Tree=41
num_leaves=7
num_cat=0
split_feature=12 25 9 47 47 23
split_gain=3682.44 4267.18 4107.67 1398.4 205.137 147.785
threshold=0.043108131058223288 0.013242224945589543 0.16228650315140727 1.7670677673850206 1.3328793496082985 0.045778573050648967
decision_type=2 2 2 2 2 10
left_child=4 3 -3 -2 -1 -6
right_child=1 2 -4 -5 5 -7
leaf_value=-0.094346740265502368 0.0030898919852453636 -0.021022663798855076 0.031759187933576495 0.081459962633029723 0.33789377351280714 -0.05889827255086303
leaf_weight=2443.4817864215001 3072.4821222387254 45402.278638175689 21835.401298820041 8792.3234304711223 9.4072223864495736 4266.8025250742212
leaf_count=141339 28059 443850 189395 123982 98 225245
internal_value=0 0.00587483 -0.00388179 0.0611654 -0.0712329 -0.0580254
internal_weight=0 79102.5 67237.7 11864.8 6719.69 4276.21
internal_count=1151968 785286 633245 152041 366682 225343
is_linear=0
shrinkage=0.1


Tree=42
num_leaves=7
num_cat=0
split_feature=23 32 36 7 23 30
split_gain=3434.75 3684.76 5181.47 1938.79 161.071 152.165
threshold=9.4701304500780399 2.4361749497036538 166.50000000000003 0.025359362089189878 17.304593864383246 0.40365907653762578
decision_type=8 2 2 2 8 10
left_child=1 3 -3 -1 5 -2
right_child=4 2 -4 -5 -6 -7
leaf_value=0.00072059083437905208 0.012652116539334105 0.031031232355201568 -0.029624330008004393 -0.078479605381161333 -0.10387701559835605 -0.082737607580026101
leaf_weight=5322.6729271821678 243.85048451181501 48449.334670018405 19855.120296880603 7371.4203540859744 2999.6235941359773 532.21230060141534
leaf_count=136340 1379 490660 263450 137542 110426 12171
internal_value=0 0.00420473 0.0133995 -0.0452707 -0.0933713 -0.0527647
internal_weight=0 80998.5 68304.5 12694.1 3775.69 776.063
internal_count=1151968 1027992 754110 273882 123976 13550
is_linear=0
shrinkage=0.1


Tree=43
num_leaves=7
num_cat=0
split_feature=33 20 0 22 36 39
split_gain=3219.24 3092.93 3328.01 102.806 71.0401 44.7028
threshold=-1.379503652135236 12.810085357147498 0.45150034322738314 7.8684227863719896 22.500000000000004 0.073053034845570478
decision_type=10 10 10 10 2 2
left_child=4 2 -2 -3 5 -1
right_child=1 3 -4 -5 -6 -7
leaf_value=-0.20288314038762933 0.06465286479806745 -0.05772468418625052 -0.00013402426857302821 -0.10298198752132635 -0.11049594828794601 0.078242754282350696
leaf_weight=6.9124851590022436 8963.3378137154505 627.39131836220622 68700.737485912628 2509.9821885097772 2615.7448878260329 31.125413957983255
leaf_count=163 115419 6708 869670 100921 58770 317
internal_value=0 0.00341082 0.00734314 -0.0939317 -0.108523 0.0271548
internal_weight=0 80801.4 77664.1 3137.37 2653.78 38.0379
internal_count=1151968 1092718 985089 107629 59250 480
is_linear=0
shrinkage=0.1


Tree=44
num_leaves=7
num_cat=0
split_feature=37 32 28 37 32 23
split_gain=3035.82 3348.68 3077.56 2849.56 1758.22 1131.09
threshold=1.0356877568063243 2.3559005000423761 0.0068358047649965175 1.0269585265912704 12.621512250349079 0.26316253964327013
decision_type=2 2 2 2 2 10
left_child=1 3 -3 -1 5 -2
right_child=4 2 -4 -5 -6 -7
leaf_value=-0.09238219721957884 0.073544030300621829 0.079260115943306911 0.0059983410911923444 0.0076595825428563205 -0.13334621174400019 -0.084258376449337202
leaf_weight=6091.9820608124137 910.07207928784192 6331.8061789758503 60723.850683955476 5345.4567608758807 2608.550279465504 906.83631545118988
leaf_count=156827 8527 102017 692651 137449 38202 16295
internal_value=0 0.0043858 0.0129162 -0.0456262 -0.0807416 -0.00521666
internal_weight=0 78493.1 67055.7 11437.4 4425.46 1816.91
internal_count=1151968 1088944 794668 294276 63024 24822
is_linear=0
shrinkage=0.1


Tree=45
num_leaves=7
num_cat=0
split_feature=32 25 47 47 14 47
split_gain=2810.15 4008.3 4092.22 1890.79 117.589 160.196
threshold=1.815922375763303 0.019806958169321272 2.8907946481996438 1.8742350671120271 10.915655651466322 1.3328793496082985
decision_type=2 2 2 2 8 2
left_child=4 3 -3 -2 5 -1
right_child=1 2 -4 -5 -6 -7
leaf_value=-0.089959719395918125 -0.0017826943581105712 -0.060182197675646976 0.004329695634394031 0.062642724991617327 -0.12044581385860463 -0.033893252144016714
leaf_weight=2167.0702668577433 6768.76716088783 12568.720443259925 45172.577443536837 13931.321123052388 788.05839020153508 666.31171880103648
leaf_count=110597 94575 116338 574774 202446 36995 16243
internal_value=0 0.00382196 -0.0097128 0.0415761 -0.0862781 -0.0767749
internal_weight=0 78441.4 57741.3 20700.1 3621.44 2833.38
internal_count=1151968 988133 691112 297021 163835 126840
is_linear=0
shrinkage=0.1


Tree=46
num_leaves=7
num_cat=0
split_feature=31 1 34 44 26 27
split_gain=2872.91 2644.85 4518.7 4236.01 1429.72 1572.93
threshold=1.9374055326922039 9.681832740653487 3.950944169608976 0.12017182232348429 0.31995533321586705 4.0632302949515262
decision_type=8 2 2 2 2 2
left_child=1 3 -3 -1 -2 -6
right_child=4 2 -4 -5 5 -7
leaf_value=0.003147369998991836 -0.096159895598557504 0.04395125515835821 -0.049512845311401966 -0.082276369037505862 0.06886829530602942 -0.093228155032504506
leaf_weight=33557.831210041419 4403.8741488833912 27339.616060419474 6379.8874946460128 7019.1694743642583 1393.4039645725861 1049.5350853800774
leaf_count=555184 124795 341657 47880 54996 11911 15545
internal_value=0 0.00557 0.0262674 -0.0116296 -0.0621254 -0.000771556
internal_weight=0 74296.5 33719.5 40577 6846.81 2442.94
internal_count=1151968 999717 389537 610180 152251 27456
is_linear=0
shrinkage=0.1


Tree=47
num_leaves=7
num_cat=0
split_feature=33 12 25 35 36 9
split_gain=2754.48 2572.18 2967.18 144.584 62.2437 35.9736
threshold=-1.379503652135236 0.036112603670470318 0.011458638410080399 0.064760840081770035 15.500000000000002 0.017522176627242616
decision_type=10 2 2 2 2 2
left_child=4 3 -3 -2 5 -1
right_child=1 2 -4 -5 -6 -7
leaf_value=-0.20232549817587264 -0.077727870835344326 0.064809345018519759 0.0005644682696421884 -0.030945914798058877 -0.10847033126799784 0.078231369894159908
leaf_weight=5.5000002835877231 3784.6523699518293 8079.4171578045934 65229.941256075632 800.3454853259027 2327.8325284034945 27.036471454426646
leaf_count=137 269241 124679 662447 36351 58815 298
internal_value=0 0.00310037 0.00764489 -0.0695617 -0.10655 0.0308057
internal_weight=0 77894.4 73309.4 4585 2360.37 32.5365
internal_count=1151968 1092718 787126 305592 59250 435
is_linear=0
shrinkage=0.1


Tree=48
num_leaves=7
num_cat=0
split_feature=46 20 33 21 2 22
split_gain=2668.14 3192.88 2295.8 4619.32 2017.37 1746.26
threshold=0.010210969700017154 3.4011168546065513 -0.37549155430446651 0.017010955092053127 2.2701348947021445 0.24010719434319605
decision_type=10 10 10 8 2 10
left_child=2 4 3 -1 -2 -4
right_child=1 -3 5 -5 -6 -7
leaf_value=0.039716098035760122 0.036998839359449774 -0.081396122478834432 -0.020994115547474806 -0.085954875182047585 -0.044573730359911919 0.028788643377378572
leaf_weight=4110.0065092020668 29831.632086223923 2860.6084972405806 17336.689012601972 10143.428643341875 3374.7514655757695 11870.758881748188
leaf_count=63125 427146 92992 194615 165597 26533 181960
internal_value=0 0.0199758 -0.0168167 -0.0497174 0.0287087 -0.00076095
internal_weight=0 36067 43460.9 14253.4 33206.4 29207.4
internal_count=1151968 546671 605297 228722 453679 376575
is_linear=0
shrinkage=0.1


Tree=49
num_leaves=7
num_cat=0
split_feature=37 37 37 25 47 38
split_gain=2532.36 2658.04 2803.32 2607.61 1544.31 1208.72
threshold=1.0356877568063243 1.0355762692809607 1.0295972992643443 0.050621583138141336 8.357087098142463 0.045786582313695756
decision_type=2 2 2 2 2 2
left_child=1 2 -1 -3 5 -2
right_child=4 3 -4 -5 -6 -7
leaf_value=0.010740861674885645 -0.11878528865278243 0.12893429810404394 -0.034989712520963688 -0.012126477791125093 -0.12327528182289918 0.070088857223015874
leaf_weight=51298.32564558927 519.79229148291051 3216.0078484434634 18146.646021525841 2211.7274572257884 2599.6693699904718 973.23521445691586
leaf_count=814709 15669 30540 218856 24839 38748 8607
internal_value=0 0.00405856 -0.00120898 0.071454 -0.0767234 0.00433299
internal_weight=0 74872.7 69445 5427.74 4092.7 1493.03
internal_count=1151968 1088944 1033565 55379 63024 24276
is_linear=0
shrinkage=0.1


Tree=50
num_leaves=7
num_cat=0
split_feature=20 0 47 26 20 25
split_gain=2252.65 2566.27 2927.06 1134.92 90.5971 110.911
threshold=12.810085357147498 0.32087405000064367 8.6471896232851382 0.20948622423684912 21.54947477738504 0.028658520469563336
decision_type=8 10 2 2 8 2
left_child=1 3 -3 -1 5 -2
right_child=4 2 -4 -5 -6 -7
leaf_value=0.015540751492480671 0.056808999704225427 0.0099915286615063301 -0.036611954897711844 0.10677416036876813 -0.099053549209158168 -0.071542749437210881
leaf_weight=2357.4347389950417 77.05848542554304 52010.103718649596 18190.697647532448 3233.9903654074296 2123.3637142656371 532.94519758364186
leaf_count=40874 1641 765508 194149 32061 101639 16096
internal_value=0 0.00310858 -0.00208454 0.0683087 -0.0892955 -0.0553288
internal_weight=0 75792.2 70200.8 5591.43 2733.37 610.004
internal_count=1151968 1032592 959657 72935 119376 17737
is_linear=0
shrinkage=0.1


Tree=51
num_leaves=7
num_cat=0
split_feature=32 29 7 26 11 11
split_gain=2286.54 2926.19 2619.43 1324.86 125.899 108.7
threshold=1.815922375763303 0.0042293019157019799 0.17791365951549445 0.0013219409643650444 52.39156517422682 2.8414416948242254
decision_type=2 2 2 2 8 10
left_child=4 3 -3 -2 5 -1
right_child=1 2 -4 -5 -6 -7
leaf_value=-0.084956324336183095 -0.34333782736051621 -0.013529124769460242 0.029348405453579886 0.089476485846789203 -0.12370556826801532 -0.038596442555484056
leaf_weight=1955.1713072173297 71.894483352079988 50713.138110436499 19814.736826966517 4344.0310972770676 600.27637337660417 682.24340044334531
leaf_count=114507 447 707363 194252 86071 33191 16137
internal_value=0 0.00346168 -0.00148272 0.08243 -0.0823716 -0.072964
internal_weight=0 74943.8 70527.9 4415.93 3237.69 2637.41
internal_count=1151968 988133 901615 86518 163835 130644
is_linear=0
shrinkage=0.1


Tree=52
num_leaves=7
num_cat=0
split_feature=9 27 2 16 19 16
split_gain=2191.37 8763.32 5072.77 4027.16 1265.96 829.794
threshold=0.1724905506260723 0.036429061507536636 2.0648803022510926 3.5507410819559673 56.873808148406376 8.1789697851671175
decision_type=2 2 2 10 10 10
left_child=1 3 4 -1 -2 -3
right_child=2 5 -4 -5 -6 -7
leaf_value=-0.030504159327439884 0.07145244120762223 -0.098533408242603385 -0.043556290054016039 0.024741497559088645 -0.096921505245990608 -0.18665409212200199
leaf_weight=22975.197924246779 12393.2158323396 1948.0476526319981 6402.8640240542591 30995.942388024181 463.23992265854031 2367.0288416375406
leaf_count=514833 128089 49314 52343 384562 8459 14368
internal_value=0 -0.00974015 0.0291673 0.00122375 0.0653856 -0.146872
internal_weight=0 58286.2 19259.3 53971.1 12856.5 4315.08
internal_count=1151968 963077 188891 899395 136548 63682
is_linear=0
shrinkage=0.1


Tree=53
num_leaves=7
num_cat=0
split_feature=46 20 47 36 33 33
split_gain=2132.81 2239.31 1968.16 1857.87 2884.91 881.065
threshold=0.010210969700017154 3.7186902908341533 1.8344760890431229 52.500000000000007 -0.2997618921550726 1.5543184615178085
decision_type=10 10 2 2 10 8
left_child=3 2 -2 5 -5 -1
right_child=1 -3 -4 4 -6 -7
leaf_value=0.050027980212479263 -0.030022457166944839 -0.075096344290196723 0.0363113085404227 -0.060397624024509183 -0.0018672495439348786 -0.07329505863297002
leaf_weight=5297.1261179826688 5367.7527155480348 2388.7210224112496 26830.914884952828 13466.722405499779 22475.972247065511 650.45884083164856
leaf_count=104744 130098 90882 325691 213438 280295 6820
internal_value=0 0.0183225 0.025253 -0.0152302 -0.0237969 0.0365407
internal_weight=0 34587.4 32198.7 41890.3 35942.7 5947.58
internal_count=1151968 546671 455789 605297 493733 111564
is_linear=0
shrinkage=0.1


Tree=54
num_leaves=7
num_cat=0
split_feature=33 46 12 47 36 33
split_gain=1974.57 1949.17 1952.61 1946.87 53.3061 33.7784
threshold=-1.379503652135236 -0.076185905989838695 0.042280496053385998 3.0021326923542628 22.500000000000004 -1.3975566491794915
decision_type=10 10 2 2 2 10
left_child=4 3 -3 -2 -1 -6
right_child=1 2 -4 -5 5 -7
leaf_value=0.025116689309975401 -0.048156150059677563 -0.060110718808508545 0.021467664475888163 0.0041597004616085904 -0.1096550446457762 -0.067046981020776678
leaf_weight=32.201545366086066 12148.842757469974 3157.9757334084716 41373.880830489565 17161.708448417019 1595.7352252381388 210.61921864165924
leaf_count=480 153247 248845 461919 228707 54167 4603
internal_value=0 0.00250152 0.0156825 -0.0175245 -0.102414 -0.104687
internal_weight=0 73842.4 44531.9 29310.6 1838.56 1806.35
internal_count=1151968 1092718 710764 381954 59250 58770
is_linear=0
shrinkage=0.1


Tree=55
num_leaves=7
num_cat=0
split_feature=37 37 29 37 47 38
split_gain=1961.15 2398.44 2326.83 2143.72 1202.61 1023.01
threshold=1.0356877568063243 1.0355762692809607 0.035887036320786624 1.0298254705312724 8.2294432375559943 0.042629559920875165
decision_type=2 2 2 2 2 2
left_child=1 3 -3 -1 5 -2
right_child=4 2 -4 -5 -6 -7
leaf_value=0.0089979065928744318 -0.12087883321842928 0.12688787072744981 -0.012151644278764622 -0.032566669761180909 -0.11228073581720761 0.064511108695773936
leaf_weight=49776.2495437006 438.37989926268347 2968.2527427915484 2024.5744964964688 16529.037373671774 2430.7012417111546 927.20600015716627
leaf_count=828544 14875 31140 24239 205021 39174 8975
internal_value=0 0.00366938 0.0705078 -0.0013636 -0.0700939 0.0049973
internal_weight=0 71298.1 4992.83 66305.3 3796.29 1365.59
internal_count=1151968 1088944 55379 1033565 63024 23850
is_linear=0
shrinkage=0.1


Tree=56
num_leaves=7
num_cat=0
split_feature=23 0 9 25 21 37
split_gain=1762.91 1900.58 2635.94 2176.46 44.6191 41.9877
threshold=17.304593864383246 0.47924452128235617 0.12739479953610669 0.023798935908158368 4.2802762490044293 1.0152734029088055
decision_type=8 10 2 2 8 2
left_child=1 2 -1 -3 5 -2
right_child=4 3 -4 -5 -6 -7
leaf_value=-0.02274849033837955 0.064889282495025555 0.020449520147011572 0.090872078622979427 -0.017638995908039783 -0.10254187489523237 -0.073341298217379142
leaf_weight=3343.6900690193288 23.261318924371153 23902.290005638963 5244.2693276074715 40292.14751747949 1504.8312136528548 397.13821909716353
leaf_count=75777 1234 444032 58064 463669 103835 5357
internal_value=0 0.00245349 0.0466343 -0.00345704 -0.0944954 -0.0656928
internal_weight=0 72782.4 8587.96 64194.4 1925.23 420.4
internal_count=1151968 1041542 133841 907701 110426 6591
is_linear=0
shrinkage=0.1


Tree=57
num_leaves=7
num_cat=0
split_feature=47 47 29 29 34 36
split_gain=1779.11 4602.09 7265.69 3999.35 3485.01 2867.37
threshold=8.6471896232851382 2.9652022045002306 0.023497782172473346 0.35528323880765139 0.088961390768504831 42.500000000000007
decision_type=2 2 2 2 2 2
left_child=1 2 -1 5 -3 -2
right_child=3 4 -4 -5 -6 -7
leaf_value=-0.028844143766568343 0.025300945493475464 -0.040454753745148841 0.21222315863337143 0.032375862813248953 0.058583169498556222 -0.083255533854985561
leaf_weight=27067.94854811742 3189.0122999495361 4302.7565935819875 1310.8045913213864 7826.6103109607939 20391.763127794955 10265.90207896824
leaf_count=441203 49963 157007 9703 79919 279737 134436
internal_value=0 0.00975969 -0.0177093 -0.0244632 0.0413269 -0.0575261
internal_weight=0 53073.3 28378.8 21281.5 24694.5 13454.9
internal_count=1151968 887650 450906 264318 436744 184399
is_linear=0
shrinkage=0.1


Tree=58
num_leaves=7
num_cat=0
split_feature=27 9 11 33 34 27
split_gain=2027.33 6937.2 2972.34 3904.52 2549.23 1428.4
threshold=0.061814314391710222 0.33876996160182143 7.1300390090383887 -0.11935705898803882 2.6372581112961364 0.0055194808285115825
decision_type=2 2 10 10 2 2
left_child=2 -2 3 -1 -3 -4
right_child=1 4 5 -5 -6 -7
leaf_value=-0.043644846679676677 -0.14301151844814605 0.079291689167798177 0.048850699500246363 0.025347579934998532 -0.032713414694390146 0.0017665738136898831
leaf_weight=18302.704168040538 4114.217571512796 3589.316175609827 17607.910237268079 14864.989547714591 4683.6154143558815 10161.534416672774
leaf_count=367166 58293 41391 284974 261109 39024 100011
internal_value=0 -0.0368926 0.00748448 -0.012724 0.0158814 0.0316214
internal_weight=0 12387.1 60937.1 33167.7 8272.93 27769.4
internal_count=1151968 138708 1013260 628275 80415 384985
is_linear=0
shrinkage=0.1


Tree=59
num_leaves=7
num_cat=0
split_feature=27 7 0 47 23 36
split_gain=1712.78 5404.74 2790.48 2731.58 6516.81 3858.84
threshold=0.083029284840880443 0.35018573111333501 1.1157361875037763 2.9652022045002306 0.50726069150340569 166.50000000000003
decision_type=2 2 10 2 10 2
left_child=3 -2 -3 4 -1 -5
right_child=1 2 -4 5 -6 -7
leaf_value=-0.042443617536498175 -0.14597540543240611 0.069792748859739767 -0.050333486248617512 0.054227209938903412 0.07331963178246978 -0.014812206063582238
leaf_weight=21740.854823384201 3191.4898038676474 3801.4608372645453 3935.931170261465 19655.110163527541 6263.9681568467058 13765.998262685025
leaf_count=317296 49514 44223 31513 341126 132975 235321
internal_value=0 -0.0364789 0.00868578 0.00648665 -0.0165503 0.0257902
internal_weight=0 10928.9 7737.39 61425.9 28004.8 33421.1
internal_count=1151968 125250 75736 1026718 450271 576447
is_linear=0
shrinkage=0.1


end of trees

feature_importances:
eeg_std=38
eeg_delta=33
eeg_nzc=28
eeg_petrosian=21
eeg_g3r=19
eeg_gama=17
eeg_gama4=16
eeg_sdelta=16
eeg_gama2=14
eeg_gn=14
eeg_kurt=14
eeg_g3b=12
eeg_n_wave2=12
eeg_iqr=11
eeg_fdelta=8
eeg_n_wave=8
eeg_ab=7
eeg_beta=7
eeg_gr=6
eeg_skew=6
eeg_beta3=5
eeg_db=5
eeg_g3d=5
eeg_gama0=5
eeg_gama3=5
eeg_g3n=4
eeg_abspow=3
eeg_ds=3
eeg_alpha=2
eeg_beta2=2
eeg_delta4=2
eeg_dr=2
eeg_rem_wave=2
eeg_theta=2
eeg_ar=1
eeg_dn=1
eeg_g3a=1
eeg_rem_wave2=1
eeg_rn=1
eeg_sigma2=1

parameters:
[boosting: gbdt]
[objective: binary]
[metric: binary_logloss]
[tree_learner: serial]
[device_type: cpu]
[data: ]
[valid: ]
[num_iterations: 60]
[learning_rate: 0.1]
[num_leaves: 7]
[num_threads: 4]
[deterministic: 0]
[force_col_wise: 0]
[force_row_wise: 0]
[histogram_pool_size: -1]
[max_depth: 3]
[min_data_in_leaf: 20]
[min_sum_hessian_in_leaf: 0.001]
[bagging_fraction: 1]
[pos_bagging_fraction: 1]
[neg_bagging_fraction: 1]
[bagging_freq: 0]
[bagging_seed: 3]
[feature_fraction: 0.5]
[feature_fraction_bynode: 1]
[feature_fraction_seed: 2]
[extra_trees: 0]
[extra_seed: 6]
[early_stopping_round: 0]
[first_metric_only: 0]
[max_delta_step: 0]
[lambda_l1: 0]
[lambda_l2: 0]
[linear_lambda: 0]
[min_gain_to_split: 0]
[drop_rate: 0.1]
[max_drop: 50]
[skip_drop: 0.5]
[xgboost_dart_mode: 0]
[uniform_drop: 0]
[drop_seed: 4]
[top_rate: 0.2]
[other_rate: 0.1]
[min_data_per_group: 100]
[max_cat_threshold: 32]
[cat_l2: 10]
[cat_smooth: 10]
[max_cat_to_onehot: 4]
[top_k: 20]
[monotone_constraints: ]
[monotone_constraints_method: basic]
[monotone_penalty: 0]
[feature_contri: ]
[forcedsplits_filename: ]
[refit_decay_rate: 0.9]
[cegb_tradeoff: 1]
[cegb_penalty_split: 0]
[cegb_penalty_feature_lazy: ]
[cegb_penalty_feature_coupled: ]
[path_smooth: 0]
[interaction_constraints: ]
[verbosity: -1]
[saved_feature_importance_type: 0]
[linear_tree: 0]
[max_bin: 255]
[max_bin_by_feature: ]
[min_data_in_bin: 3]
[bin_construct_sample_cnt: 200000]
[data_random_seed: 1]
[is_enable_sparse: 1]
[enable_bundle: 1]
[use_missing: 1]
[zero_as_missing: 0]
[feature_pre_filter: 1]
[pre_partition: 0]
[two_round: 0]
[header: 0]
[label_column: ]
[weight_column: ]
[group_column: ]
[ignore_column: ]
[categorical_feature: ]
[forcedbins_filename: ]
[precise_float_parser: 0]
[objective_seed: 5]
[num_class: 1]
[is_unbalance: 0]
[scale_pos_weight: 1]
[sigmoid: 1]
[boost_from_average: 1]
[reg_sqrt: 0]
[alpha: 0.9]
[fair_c: 1]
[poisson_max_delta_step: 0.7]
[tweedie_variance_power: 1.5]
[lambdarank_truncation_level: 30]
[lambdarank_norm: 1]
[label_gain: ]
[eval_at: ]
[multi_error_top_k: 1]
[auc_mu_weights: ]
[num_machines: 1]
[local_listen_port: 12400]
[time_out: 120]
[machine_list_filename: ]
[machines: ]
[gpu_platform_id: -1]
[gpu_device_id: -1]
[gpu_use_dp: 0]
[num_gpu: 1]

end of parameters

pandas_categorical:[]
